{
    "linear_1.weight": [
        [
            -0.6147988438606262,
            0.5348865985870361
        ],
        [
            -0.0057626208290457726,
            0.4087924659252167
        ],
        [
            -0.17865309119224548,
            -0.1901308298110962
        ],
        [
            -0.6324541568756104,
            0.4710671901702881
        ],
        [
            -0.37801387906074524,
            0.5304170250892639
        ],
        [
            0.6641590595245361,
            -0.45440879464149475
        ],
        [
            -0.44545137882232666,
            -0.33519405126571655
        ],
        [
            -0.23507113754749298,
            0.6459938883781433
        ],
        [
            0.003960286267101765,
            0.07049068808555603
        ],
        [
            0.27473506331443787,
            0.022392788901925087
        ],
        [
            0.2486620992422104,
            -0.40017032623291016
        ],
        [
            0.2951960563659668,
            0.5452699661254883
        ],
        [
            0.02350403182208538,
            -0.17588157951831818
        ],
        [
            0.571291983127594,
            -0.09858705848455429
        ],
        [
            -0.3786716163158417,
            -0.23699192702770233
        ],
        [
            0.4956558346748352,
            0.3563348650932312
        ],
        [
            0.616499125957489,
            0.1768946796655655
        ],
        [
            0.284488707780838,
            0.5303449630737305
        ],
        [
            0.18006663024425507,
            0.17167893052101135
        ],
        [
            0.6807481646537781,
            0.570892333984375
        ],
        [
            0.4359353184700012,
            0.1324349343776703
        ],
        [
            0.1350097954273224,
            0.2420051544904709
        ],
        [
            -0.34169864654541016,
            0.5004947781562805
        ],
        [
            0.13253146409988403,
            -0.37403199076652527
        ],
        [
            -0.2832774221897125,
            0.18973992764949799
        ],
        [
            0.03986263647675514,
            -0.662964940071106
        ],
        [
            0.18334214389324188,
            -0.2536621391773224
        ],
        [
            -0.3589155972003937,
            0.5045157074928284
        ],
        [
            0.38048240542411804,
            -0.34583353996276855
        ],
        [
            -0.028177443891763687,
            0.13797318935394287
        ],
        [
            -0.13930730521678925,
            -0.3944520056247711
        ],
        [
            0.31041401624679565,
            -0.5521987080574036
        ],
        [
            -0.043093498796224594,
            -0.5605998039245605
        ],
        [
            0.30994075536727905,
            -0.39035433530807495
        ],
        [
            -0.26991093158721924,
            -0.1067875474691391
        ],
        [
            -0.37598463892936707,
            0.6328958868980408
        ],
        [
            -0.026017475873231888,
            -0.4737691283226013
        ],
        [
            0.39608991146087646,
            -0.021343637257814407
        ],
        [
            -0.19754712283611298,
            0.5454800128936768
        ],
        [
            0.5033438801765442,
            0.5436437129974365
        ],
        [
            -0.3076103627681732,
            0.3824811279773712
        ],
        [
            -0.6499505043029785,
            0.4150518774986267
        ],
        [
            0.5741869211196899,
            0.03871406614780426
        ],
        [
            0.370667964220047,
            -0.07119639962911606
        ],
        [
            -0.3424884080886841,
            0.09345962107181549
        ],
        [
            -0.5783405900001526,
            0.2022959291934967
        ],
        [
            0.18212538957595825,
            0.522240400314331
        ],
        [
            -0.11221122741699219,
            -0.6235691905021667
        ],
        [
            0.6880328059196472,
            -0.3052503168582916
        ],
        [
            0.3363857865333557,
            -0.4753153622150421
        ],
        [
            0.2693132162094116,
            0.6765678524971008
        ],
        [
            -0.02341173030436039,
            0.06370673328638077
        ],
        [
            -0.14673393964767456,
            0.4238399863243103
        ],
        [
            -0.38664600253105164,
            -0.010967115871608257
        ],
        [
            -0.11589746177196503,
            -0.014711739495396614
        ],
        [
            0.13674567639827728,
            -0.35052183270454407
        ],
        [
            -0.36119207739830017,
            -0.34254026412963867
        ],
        [
            -0.23608526587486267,
            0.10151345282793045
        ],
        [
            0.13358551263809204,
            0.20732587575912476
        ],
        [
            0.13523341715335846,
            -0.1614253669977188
        ],
        [
            -0.5732205510139465,
            -0.3925773799419403
        ],
        [
            -0.6617296934127808,
            -0.1745881736278534
        ],
        [
            -0.11543669551610947,
            0.4860347807407379
        ],
        [
            -0.2574504613876343,
            -0.5447993874549866
        ],
        [
            -0.04659000039100647,
            -0.2719949781894684
        ],
        [
            -0.5601409673690796,
            0.27030161023139954
        ],
        [
            0.31725379824638367,
            0.5140455365180969
        ],
        [
            -0.6156327724456787,
            0.13688182830810547
        ],
        [
            -0.056778889149427414,
            -0.442531019449234
        ],
        [
            0.2266446352005005,
            0.09720943123102188
        ],
        [
            0.46168410778045654,
            -0.3451434075832367
        ],
        [
            -0.4054962694644928,
            -0.542898952960968
        ],
        [
            0.19736823439598083,
            0.43579405546188354
        ],
        [
            0.490765243768692,
            -0.6180683970451355
        ],
        [
            0.5001969337463379,
            -0.2786591947078705
        ],
        [
            0.6407911777496338,
            -0.33289361000061035
        ],
        [
            0.13556785881519318,
            -0.511046826839447
        ],
        [
            -0.21657007932662964,
            -0.07753866910934448
        ],
        [
            -0.5432418584823608,
            0.18642237782478333
        ],
        [
            -0.5743803381919861,
            0.28173258900642395
        ],
        [
            -0.18770185112953186,
            0.09738491475582123
        ],
        [
            -0.22163332998752594,
            -0.5023768544197083
        ],
        [
            0.2769712805747986,
            0.6197671890258789
        ],
        [
            -0.6538986563682556,
            -0.5261650681495667
        ],
        [
            0.5755584239959717,
            -0.45511436462402344
        ],
        [
            0.4674423635005951,
            0.5920620560646057
        ],
        [
            0.46680787205696106,
            -0.1124824583530426
        ],
        [
            0.19209851324558258,
            -0.1624423712491989
        ],
        [
            0.5365468859672546,
            0.5523216724395752
        ],
        [
            0.2966938316822052,
            0.0795363187789917
        ],
        [
            0.09915745258331299,
            0.05036025866866112
        ],
        [
            0.30178165435791016,
            0.5413572788238525
        ],
        [
            0.35842034220695496,
            -0.06485627591609955
        ],
        [
            -0.1545533537864685,
            -0.12454374879598618
        ],
        [
            0.2396565079689026,
            -0.44960182905197144
        ],
        [
            0.4802752733230591,
            -0.45003628730773926
        ],
        [
            0.12397216260433197,
            0.12201739102602005
        ],
        [
            -0.12260708957910538,
            -0.1833048015832901
        ],
        [
            0.38792067766189575,
            -0.2708900570869446
        ],
        [
            -0.462116003036499,
            0.6223931312561035
        ],
        [
            0.39110344648361206,
            0.5289788246154785
        ],
        [
            0.5934134721755981,
            -0.26585274934768677
        ],
        [
            -0.6078145503997803,
            0.6367318034172058
        ],
        [
            -0.49756258726119995,
            0.5603766441345215
        ],
        [
            -0.1549644023180008,
            -0.03702964633703232
        ],
        [
            -0.39960816502571106,
            -0.6387620568275452
        ],
        [
            0.4757504463195801,
            -0.4191896319389343
        ],
        [
            -0.41449394822120667,
            0.10127359628677368
        ],
        [
            0.6495948433876038,
            0.07426000386476517
        ],
        [
            0.13110888004302979,
            0.20748169720172882
        ],
        [
            0.37946879863739014,
            0.5436160564422607
        ],
        [
            0.6718799471855164,
            0.23982365429401398
        ],
        [
            0.6019997596740723,
            0.6017931699752808
        ],
        [
            0.24221883714199066,
            0.6062930822372437
        ],
        [
            -0.6894915699958801,
            0.6267943978309631
        ],
        [
            -0.5919391512870789,
            -0.24393869936466217
        ],
        [
            0.3710217773914337,
            0.03883088380098343
        ],
        [
            -0.7011695504188538,
            -0.08613146841526031
        ],
        [
            -0.2493480145931244,
            0.0055061643943190575
        ],
        [
            0.1640779674053192,
            -0.031959787011146545
        ],
        [
            -0.03613677993416786,
            0.44973990321159363
        ],
        [
            0.23863522708415985,
            0.27304813265800476
        ],
        [
            -0.244554802775383,
            -0.3169793486595154
        ],
        [
            -0.3600466251373291,
            -0.49149781465530396
        ],
        [
            0.5488602519035339,
            -0.4747457802295685
        ],
        [
            0.6503729224205017,
            0.4820473790168762
        ],
        [
            0.023960547521710396,
            -0.18059611320495605
        ],
        [
            -0.2241283357143402,
            0.4151614010334015
        ],
        [
            -0.616999089717865,
            0.2025049775838852
        ],
        [
            -0.3940682113170624,
            0.35935893654823303
        ],
        [
            -0.347467303276062,
            0.18918295204639435
        ],
        [
            -0.40559378266334534,
            0.3274939954280853
        ],
        [
            0.2559363842010498,
            -0.024516483768820763
        ],
        [
            -0.5755513906478882,
            -0.6961758732795715
        ],
        [
            -0.29856035113334656,
            -0.5224758982658386
        ],
        [
            0.7064614295959473,
            0.5986294746398926
        ],
        [
            -0.44940105080604553,
            -0.30558690428733826
        ],
        [
            0.6167789101600647,
            0.5978737473487854
        ],
        [
            0.4932857155799866,
            0.5599496364593506
        ],
        [
            0.259162575006485,
            -0.559396505355835
        ],
        [
            0.7009581327438354,
            0.11590760201215744
        ],
        [
            -0.31907275319099426,
            0.6763982176780701
        ],
        [
            0.2915363907814026,
            0.3515249490737915
        ],
        [
            -0.06792958080768585,
            0.5258447527885437
        ],
        [
            0.4761265218257904,
            -0.2264004647731781
        ],
        [
            -0.2841213643550873,
            -0.4613300859928131
        ],
        [
            -0.00026613284717313945,
            -0.5720514059066772
        ],
        [
            0.39200741052627563,
            -0.664374828338623
        ],
        [
            0.6176102161407471,
            0.20098651945590973
        ],
        [
            0.023273805156350136,
            0.5253952741622925
        ],
        [
            0.053393833339214325,
            -0.49585044384002686
        ],
        [
            0.11351433396339417,
            0.4548566937446594
        ],
        [
            0.15427923202514648,
            -0.08735520392656326
        ],
        [
            0.5478887557983398,
            0.2350989580154419
        ],
        [
            0.46292075514793396,
            -0.3380546271800995
        ],
        [
            0.28324568271636963,
            -0.061613112688064575
        ],
        [
            -0.16350862383842468,
            0.48970064520835876
        ],
        [
            0.5639228224754333,
            0.265430212020874
        ],
        [
            0.3226999342441559,
            -0.6204967498779297
        ],
        [
            -0.45517972111701965,
            -0.2828758955001831
        ],
        [
            0.49788522720336914,
            -0.3053939640522003
        ],
        [
            -0.6324767470359802,
            0.40538495779037476
        ],
        [
            0.6067124009132385,
            -0.3590860962867737
        ],
        [
            0.29497501254081726,
            0.48986193537712097
        ],
        [
            0.2690989375114441,
            0.061896275728940964
        ],
        [
            0.6201643347740173,
            -0.2897859811782837
        ],
        [
            0.6802654266357422,
            0.31642597913742065
        ],
        [
            0.17273522913455963,
            0.3314572274684906
        ],
        [
            -0.6378201246261597,
            0.4149099290370941
        ],
        [
            0.4080583453178406,
            0.6271006464958191
        ],
        [
            0.5606383085250854,
            0.06999477744102478
        ],
        [
            -0.2636646032333374,
            0.6776121854782104
        ],
        [
            -0.11585021764039993,
            -0.4430263340473175
        ],
        [
            0.41173771023750305,
            0.36829978227615356
        ],
        [
            0.5034055709838867,
            -0.09585696458816528
        ],
        [
            -0.03509832173585892,
            0.1534554362297058
        ],
        [
            -0.16833092272281647,
            -0.08179662376642227
        ],
        [
            0.315205454826355,
            0.4902729392051697
        ],
        [
            -0.6525512933731079,
            -0.6765567660331726
        ],
        [
            0.6149516701698303,
            0.321164608001709
        ],
        [
            0.24753206968307495,
            -0.34052348136901855
        ],
        [
            0.01560866367071867,
            -0.5963220000267029
        ],
        [
            -0.3065322935581207,
            -0.1572486311197281
        ],
        [
            0.36848023533821106,
            -0.5120213031768799
        ],
        [
            0.6443652510643005,
            0.23311688005924225
        ],
        [
            0.6549831032752991,
            -0.1592002660036087
        ],
        [
            -0.15306536853313446,
            0.6368348598480225
        ],
        [
            -0.32184040546417236,
            -0.44198793172836304
        ],
        [
            -0.2290419489145279,
            0.07161149382591248
        ],
        [
            -0.4127991497516632,
            0.43168914318084717
        ],
        [
            0.18575623631477356,
            -0.6314010620117188
        ],
        [
            0.30065977573394775,
            -0.012157623656094074
        ],
        [
            -0.3197413384914398,
            -0.07121443003416061
        ],
        [
            0.298138290643692,
            0.11515901237726212
        ],
        [
            0.5901007652282715,
            0.3005300760269165
        ],
        [
            0.3922634422779083,
            0.15862403810024261
        ],
        [
            0.11797627806663513,
            -0.4367741048336029
        ],
        [
            -0.44167396426200867,
            -0.04493407532572746
        ],
        [
            -0.056721143424510956,
            0.2911885976791382
        ],
        [
            -0.46904242038726807,
            0.44472914934158325
        ],
        [
            0.17729079723358154,
            -0.0695362240076065
        ],
        [
            0.6933070421218872,
            0.03134791925549507
        ],
        [
            -0.6063674092292786,
            0.3665577471256256
        ],
        [
            0.10023936629295349,
            -0.08365070074796677
        ],
        [
            0.2896881103515625,
            0.5951130390167236
        ],
        [
            0.6287034153938293,
            -0.6019392013549805
        ],
        [
            0.35765376687049866,
            0.2723633944988251
        ],
        [
            -0.13293427228927612,
            -0.3851282000541687
        ],
        [
            0.3075129985809326,
            0.0022589024156332016
        ],
        [
            -0.6605985760688782,
            0.29699307680130005
        ],
        [
            0.3799969255924225,
            -0.06321106851100922
        ],
        [
            0.05441014841198921,
            -0.1698174923658371
        ],
        [
            0.29798048734664917,
            0.41277754306793213
        ],
        [
            -0.018115811049938202,
            0.16310593485832214
        ],
        [
            0.26745185256004333,
            -0.16930170357227325
        ],
        [
            0.6329858899116516,
            -0.07601912319660187
        ],
        [
            -0.34791645407676697,
            -0.1044292077422142
        ],
        [
            -0.5212008953094482,
            -0.24229232966899872
        ],
        [
            0.4735889434814453,
            -0.11531040072441101
        ],
        [
            0.30785661935806274,
            0.6909556984901428
        ],
        [
            0.6259618997573853,
            0.3147258460521698
        ],
        [
            -0.582970917224884,
            0.22349540889263153
        ],
        [
            0.4215628504753113,
            -0.5502657294273376
        ],
        [
            -0.008556600660085678,
            0.35832953453063965
        ],
        [
            0.23838476836681366,
            0.4121110439300537
        ],
        [
            0.13372477889060974,
            -0.5312293767929077
        ],
        [
            -0.5248869061470032,
            0.6841340661048889
        ],
        [
            -0.2789304256439209,
            0.4742491543292999
        ],
        [
            -0.3766414225101471,
            0.6810306310653687
        ],
        [
            0.3962385952472687,
            -0.6097671389579773
        ],
        [
            -0.540247917175293,
            -0.27348119020462036
        ],
        [
            -0.6750108599662781,
            0.024219870567321777
        ],
        [
            -0.1504242867231369,
            -0.08295746892690659
        ],
        [
            -0.24820151925086975,
            0.04732012003660202
        ],
        [
            0.5081281065940857,
            0.1598207652568817
        ],
        [
            -0.5531374216079712,
            0.21126461029052734
        ],
        [
            -0.43646517395973206,
            0.1923314929008484
        ],
        [
            0.45748230814933777,
            0.6899828314781189
        ],
        [
            -0.3119979500770569,
            -0.5665379166603088
        ],
        [
            0.4898684620857239,
            0.40116533637046814
        ],
        [
            0.631696879863739,
            0.06683430820703506
        ],
        [
            0.43797531723976135,
            0.35991141200065613
        ],
        [
            -0.30723798274993896,
            0.5528898239135742
        ],
        [
            -0.3106617033481598,
            -0.34273141622543335
        ],
        [
            -0.5143213272094727,
            -0.058429185301065445
        ],
        [
            -0.5457112193107605,
            -0.0762820839881897
        ],
        [
            -0.5914555191993713,
            0.5519992709159851
        ],
        [
            0.5469850301742554,
            0.44351187348365784
        ],
        [
            -0.26092928647994995,
            -0.19307352602481842
        ],
        [
            -0.21522417664527893,
            0.09947448968887329
        ],
        [
            -0.5309303998947144,
            0.6693178415298462
        ],
        [
            -0.5210246443748474,
            0.01972244493663311
        ],
        [
            -0.041942596435546875,
            0.2067325860261917
        ],
        [
            -0.6240739226341248,
            -0.6402631402015686
        ],
        [
            0.3071950674057007,
            -0.5366125702857971
        ],
        [
            0.28060728311538696,
            0.33119529485702515
        ]
    ],
    "linear_1.bias": [
        -0.03011622652411461,
        -0.2741911709308624,
        0.3985081911087036,
        0.17824885249137878,
        0.14114125072956085,
        0.3478994071483612,
        -0.5210686326026917,
        -0.21615906059741974,
        -0.2746666371822357,
        -0.39202114939689636,
        -0.440848708152771,
        0.08075849711894989,
        -0.533112108707428,
        0.09634482860565186,
        0.6156405806541443,
        0.17937426269054413,
        -0.2742190957069397,
        -0.6566192507743835,
        0.4621618092060089,
        0.16973139345645905,
        0.5430223941802979,
        0.1444108933210373,
        -0.2531741261482239,
        0.15112881362438202,
        0.5681401491165161,
        0.23135589063167572,
        0.6697483658790588,
        0.4470752477645874,
        0.2192312628030777,
        -0.41816794872283936,
        -0.4158942997455597,
        -0.25149068236351013,
        0.6774716973304749,
        -0.5328382253646851,
        0.6961579322814941,
        -0.2921217083930969,
        0.4246841073036194,
        0.49749234318733215,
        0.7013949751853943,
        0.669273316860199,
        -0.46046367287635803,
        -0.3954436480998993,
        0.6722926497459412,
        -0.15604184567928314,
        -0.5467298626899719,
        -0.20087921619415283,
        0.543158233165741,
        0.25614410638809204,
        -0.29242032766342163,
        -0.37346598505973816,
        0.4297584295272827,
        -0.2698761224746704,
        -0.13946834206581116,
        -0.03654409945011139,
        0.11463868618011475,
        0.0289327260106802,
        0.506507933139801,
        0.39756330847740173,
        0.19004543125629425,
        0.16654449701309204,
        0.5410206913948059,
        -0.08725501596927643,
        0.16837266087532043,
        0.3421074450016022,
        0.42771467566490173,
        0.07603029161691666,
        0.5228596329689026,
        -0.4005697965621948,
        0.3568466603755951,
        -0.013201276771724224,
        0.42530637979507446,
        0.02397531270980835,
        -0.42591407895088196,
        -0.0719248354434967,
        -0.42020270228385925,
        0.2182762771844864,
        -0.3323803246021271,
        0.17834675312042236,
        0.3538613021373749,
        0.10700560361146927,
        0.3489408493041992,
        0.13651666045188904,
        -0.3771510124206543,
        -0.21260058879852295,
        0.19162143766880035,
        0.3427422344684601,
        0.5499534606933594,
        -0.003836588468402624,
        -0.4932946562767029,
        0.5775409936904907,
        -0.40211766958236694,
        0.6915845274925232,
        -0.16512763500213623,
        0.022495634853839874,
        -0.25067999958992004,
        0.6359173059463501,
        0.25016355514526367,
        0.5456029176712036,
        0.08369146287441254,
        0.3178977370262146,
        -0.011940768919885159,
        0.24110907316207886,
        0.005917211528867483,
        -0.27512407302856445,
        0.20818428695201874,
        0.5386385917663574,
        -0.16063624620437622,
        0.17851153016090393,
        -0.44119134545326233,
        0.3783658742904663,
        -0.6189751625061035,
        0.23592878878116608,
        -0.18271510303020477,
        0.5836255550384521,
        -0.1850264072418213,
        -0.7048476934432983,
        -0.006837802939116955,
        -0.2269478738307953,
        0.36504626274108887,
        0.3484876751899719,
        -0.21456794440746307,
        0.4814651608467102,
        -0.0776468813419342,
        -0.3324757516384125,
        0.21073545515537262,
        0.021931173279881477,
        0.5473468899726868,
        0.4334317743778229,
        -0.18235541880130768,
        -0.3702903985977173,
        -0.3045426607131958,
        -0.6414548754692078,
        -0.29107236862182617,
        -0.6096352934837341,
        -0.5880654454231262,
        0.5794681310653687,
        -0.4917847514152527,
        -0.47110897302627563,
        0.06333724409341812,
        0.41493356227874756,
        -0.6310510039329529,
        0.34977036714553833,
        0.5929700136184692,
        -0.2723373472690582,
        0.3918631970882416,
        0.19510173797607422,
        0.11547781527042389,
        -0.680276095867157,
        0.06562813371419907,
        -0.35186389088630676,
        0.6371254324913025,
        0.3846111595630646,
        0.43453365564346313,
        0.5507974028587341,
        0.2691739499568939,
        0.3893336057662964,
        0.44175487756729126,
        0.2708675265312195,
        0.13080832362174988,
        -0.3258391320705414,
        0.48611634969711304,
        0.2598838210105896,
        -0.6238600015640259,
        -0.5723036527633667,
        0.25592464208602905,
        -0.17561566829681396,
        0.4774373769760132,
        -0.7054596543312073,
        -0.44318902492523193,
        0.4964546859264374,
        -0.37625938653945923,
        -0.12262751162052155,
        -0.651806116104126,
        -0.09653761237859726,
        0.009582821279764175,
        0.6155406832695007,
        0.4826403260231018,
        -0.3167838752269745,
        -0.2138150930404663,
        0.26954975724220276,
        0.3926035165786743,
        -0.2782668173313141,
        0.5639914274215698,
        0.0001252659858437255,
        -0.14413709938526154,
        -0.4954727590084076,
        0.5261781215667725,
        -0.3901772201061249,
        0.11884059011936188,
        0.2837778925895691,
        0.23202382028102875,
        -0.07514224946498871,
        -0.38536885380744934,
        -0.6903183460235596,
        0.09093401581048965,
        0.038871753960847855,
        -0.2043232023715973,
        0.46273717284202576,
        -0.4136142432689667,
        -0.4815768897533417,
        -0.028685152530670166,
        0.1071709468960762,
        0.48123037815093994,
        -0.5928941965103149,
        0.20320497453212738,
        -0.11610157042741776,
        -0.5346829295158386,
        -0.03822643309831619,
        -0.5948259830474854,
        0.45689070224761963,
        -0.30786260962486267,
        -0.6929118633270264,
        -0.706701397895813,
        -0.5012637376785278,
        0.38703587651252747,
        0.3542153239250183,
        0.5010482668876648,
        0.5888715386390686,
        -0.6240893006324768,
        -0.0171473678201437,
        0.18960395455360413,
        0.14814601838588715,
        0.02677871100604534,
        0.01813921518623829,
        -0.26204633712768555,
        -0.16058513522148132,
        -0.6860393285751343,
        0.6226406097412109,
        -0.11000518500804901,
        0.5430434346199036,
        -0.2837963104248047,
        0.04215486720204353,
        -0.15711325407028198,
        -0.024140365421772003,
        -0.5810955166816711,
        -0.017815008759498596,
        -0.2792232930660248,
        -0.23873142898082733,
        -0.1918867528438568,
        -0.025508636608719826,
        0.04975361004471779,
        0.32895174622535706,
        0.563317060470581,
        -0.23648646473884583,
        -0.21946993470191956,
        -0.6321958303451538,
        0.006574084050953388,
        0.5665057301521301,
        -0.31647226214408875,
        0.6232549548149109,
        0.16299405694007874,
        0.6493924856185913,
        0.14721255004405975,
        -0.688144326210022,
        -0.5412261486053467,
        0.3139163851737976
    ],
    "linear_2.weight": [
        [
            0.016200922429561615,
            -0.02750786393880844,
            0.05439622700214386,
            0.0158843994140625,
            0.001385621726512909,
            0.03897940367460251,
            0.051708415150642395,
            -0.02627633512020111,
            -0.059688664972782135,
            -0.05071384459733963,
            -0.024883002042770386,
            0.052132561802864075,
            0.04076870530843735,
            0.022768884897232056,
            -0.05197673290967941,
            -0.05463562160730362,
            -0.03160831332206726,
            -0.0032379701733589172,
            0.002531297504901886,
            0.010788895189762115,
            -0.059470146894454956,
            -0.02253563702106476,
            -0.049471691250801086,
            -0.0027092471718788147,
            0.033339954912662506,
            0.04224178194999695,
            -0.03770717233419418,
            0.02667395770549774,
            0.024821534752845764,
            0.006623066961765289,
            -0.007544949650764465,
            -0.01919262856245041,
            -0.04755592346191406,
            0.05460153520107269,
            -0.03545582294464111,
            7.665157318115234e-05,
            -0.0047474876046180725,
            0.03356001526117325,
            -0.0066180601716041565,
            0.024583593010902405,
            -0.011898286640644073,
            -0.01604524254798889,
            0.0602024644613266,
            -0.0511091947555542,
            -0.01601499319076538,
            0.05618971586227417,
            -0.02199774980545044,
            0.02392388880252838,
            -0.010415300726890564,
            0.030908510088920593,
            -0.026564165949821472,
            -0.04345820099115372,
            -0.0495264008641243,
            0.03461660444736481,
            0.01402372121810913,
            -0.04842584580183029,
            -0.06059230864048004,
            0.010213285684585571,
            -0.03219541162252426,
            -0.02111489325761795,
            -0.020438820123672485,
            0.03728191554546356,
            0.02699115127325058,
            -0.02603571116924286,
            -0.06129065901041031,
            0.02012430876493454,
            0.05705186724662781,
            0.05407468229532242,
            -0.05867352336645126,
            -0.05182206630706787,
            -0.0016036704182624817,
            0.02571958303451538,
            0.020009323954582214,
            -0.0434737354516983,
            -0.002301834523677826,
            0.007925502955913544,
            0.04588285833597183,
            -0.028167687356472015,
            0.012335963547229767,
            0.06017924100160599,
            -0.00863087922334671,
            0.046270258724689484,
            0.028984978795051575,
            0.040263667702674866,
            0.061825066804885864,
            -0.0617196187376976,
            -0.015748754143714905,
            0.027497977018356323,
            -0.002531006932258606,
            -0.04930821806192398,
            -0.016940049827098846,
            -0.009382195770740509,
            -0.041325926780700684,
            0.04216860979795456,
            -0.03045061230659485,
            0.006641551852226257,
            -0.043746136128902435,
            -0.015882596373558044,
            0.03693082183599472,
            -0.024235069751739502,
            -0.05393321067094803,
            0.016951121389865875,
            0.036703407764434814,
            0.03877275437116623,
            -0.016140863299369812,
            0.00033143162727355957,
            -0.04809218645095825,
            0.05600207298994064,
            0.05881471931934357,
            0.003910280764102936,
            0.020489193499088287,
            -0.04668201506137848,
            -0.03423707187175751,
            0.012619704008102417,
            0.028392992913722992,
            0.05374853312969208,
            -0.05934423208236694,
            -0.0012177154421806335,
            -0.00804632157087326,
            -0.010911881923675537,
            -0.011373057961463928,
            -0.043255843222141266,
            0.040881767868995667,
            0.0503353476524353,
            0.035465240478515625,
            0.04083528369665146,
            0.032480038702487946,
            0.02753756195306778,
            -0.019235044717788696,
            -0.011472731828689575,
            -0.054471515119075775,
            0.03086564689874649,
            -0.04569120705127716,
            -0.05044213682413101,
            -0.04604557901620865,
            -0.030291400849819183,
            0.014022774994373322,
            0.05277649313211441,
            0.019780084490776062,
            -0.032977648079395294,
            -0.05290985852479935,
            0.015258543193340302,
            -0.0624203234910965,
            -0.015283070504665375,
            0.010282136499881744,
            -0.04293588548898697,
            -0.04471498727798462,
            0.0396883562207222,
            0.041571468114852905,
            -0.026687443256378174,
            -0.03814733028411865,
            -0.045121945440769196,
            0.01752779632806778,
            -0.036841683089733124,
            0.046560488641262054,
            0.018629446625709534,
            -0.018408961594104767,
            0.04078295826911926,
            -0.008901648223400116,
            -0.0002647116780281067,
            0.03497442603111267,
            0.014572426676750183,
            0.05438189208507538,
            -0.05212946981191635,
            -0.04071514308452606,
            -0.0502314493060112,
            -0.033333711326122284,
            0.002985522150993347,
            0.03990372270345688,
            -0.0031058266758918762,
            0.03257247060537338,
            -0.03723222017288208,
            -0.008687920868396759,
            -0.011954791843891144,
            0.03074808418750763,
            -0.05937855690717697,
            -0.05810627341270447,
            -0.05747868865728378,
            0.06130967289209366,
            0.0006095319986343384,
            -0.03192145377397537,
            0.04893416166305542,
            -0.0609273761510849,
            0.051975540816783905,
            -0.03095007687807083,
            -0.0358157679438591,
            -0.024041801691055298,
            -0.023479513823986053,
            0.046555109322071075,
            -0.0024390220642089844,
            -0.0564347505569458,
            0.0026854276657104492,
            0.06121109426021576,
            0.030948229134082794,
            -0.0323752760887146,
            -0.028363607823848724,
            0.06229902058839798,
            -0.035473354160785675,
            -0.04710846394300461,
            -0.05628625303506851,
            -0.0481143444776535,
            0.0532749742269516,
            -0.006555907428264618,
            0.04575817286968231,
            -0.05647528916597366,
            0.04205147922039032,
            -0.04324117302894592,
            -0.014303430914878845,
            0.04103928059339523,
            -0.00331173837184906,
            -0.01563526690006256,
            0.014088675379753113,
            -0.026428595185279846,
            0.0487351268529892,
            -0.023133449256420135,
            -0.02136152982711792,
            0.007989630103111267,
            0.020426474511623383,
            -0.05497104674577713,
            0.04522787034511566,
            -0.05751486122608185,
            0.058904215693473816,
            -0.035082124173641205,
            0.005226708948612213,
            -0.051641516387462616,
            0.031334102153778076,
            0.055416643619537354,
            -0.04254758358001709,
            0.017578013241291046,
            -0.017909705638885498,
            -0.014598168432712555,
            0.01185491681098938,
            -0.0467807874083519,
            -0.05980146676301956,
            -0.05139240622520447,
            -0.04015866667032242,
            0.00919041782617569,
            -0.005794055759906769,
            0.025614112615585327,
            0.0017779991030693054,
            -0.01476278156042099,
            -0.04495422542095184,
            0.05169603228569031,
            0.0030175670981407166,
            -0.03436855971813202,
            0.020380035042762756,
            -0.02174760401248932,
            0.0038533732295036316,
            -0.030531875789165497,
            -0.011524498462677002,
            0.04615378379821777,
            -0.03061457723379135,
            0.029794715344905853,
            0.061115168035030365,
            0.042598091065883636,
            -0.000359170138835907
        ],
        [
            0.03913258761167526,
            0.05230354517698288,
            -0.012896791100502014,
            -0.04203759878873825,
            -0.027457185089588165,
            -0.02663513273000717,
            -0.046024613082408905,
            -0.058571308851242065,
            0.03638671338558197,
            0.024953827261924744,
            -0.05133771151304245,
            0.0036028921604156494,
            0.003094784915447235,
            -0.03776591271162033,
            -0.05807717889547348,
            0.04117855429649353,
            0.04298368841409683,
            -0.041629113256931305,
            0.02312333881855011,
            0.0010574981570243835,
            0.045597903430461884,
            -0.03778856247663498,
            0.05896078050136566,
            0.01607143133878708,
            -0.003803633153438568,
            0.010347150266170502,
            -0.034245699644088745,
            -0.023304708302021027,
            -0.054750777781009674,
            -0.023642942309379578,
            -0.020780891180038452,
            -0.009737960994243622,
            0.015369400382041931,
            0.05728531628847122,
            -0.029199108481407166,
            -0.022593878209590912,
            0.05104808509349823,
            -0.011901065707206726,
            0.026162609457969666,
            -0.03588458150625229,
            0.04540830850601196,
            0.05977889150381088,
            -0.015435591340065002,
            -0.015076540410518646,
            0.0006318241357803345,
            0.057801827788352966,
            -0.058346398174762726,
            -0.03808288276195526,
            -0.04077696055173874,
            -0.02782885730266571,
            0.06052359193563461,
            0.027973420917987823,
            -0.030777767300605774,
            0.026872828602790833,
            0.047788359224796295,
            -0.007821686565876007,
            0.025005117058753967,
            -0.005805216729640961,
            -0.062419287860393524,
            0.035214804112911224,
            0.023000478744506836,
            -0.053868360817432404,
            0.027524687349796295,
            0.04617489129304886,
            -0.028541013598442078,
            0.015021838247776031,
            0.02413570135831833,
            0.026266098022460938,
            -0.04050181806087494,
            -0.058698296546936035,
            -0.05907993018627167,
            0.032663822174072266,
            -0.03803309053182602,
            -0.015495963394641876,
            -0.048597149550914764,
            -0.014248192310333252,
            -0.022936590015888214,
            0.048957936465740204,
            0.03178887814283371,
            0.06152522563934326,
            -0.04072733223438263,
            -0.007533043622970581,
            0.03845960646867752,
            0.056177422404289246,
            0.021767452359199524,
            0.009519591927528381,
            -0.026054449379444122,
            0.0027526244521141052,
            0.0199471116065979,
            0.014658287167549133,
            0.04915028065443039,
            -0.052813030779361725,
            -0.034444659948349,
            0.058325767517089844,
            -0.059793807566165924,
            -0.05742056667804718,
            0.04694712907075882,
            -0.05423453450202942,
            -0.049475036561489105,
            -0.041274718940258026,
            -0.04781638830900192,
            0.0034880712628364563,
            0.026008807122707367,
            -0.054769694805145264,
            0.003820091485977173,
            -0.06145743280649185,
            0.021686866879463196,
            -0.04750921577215195,
            -0.03857870399951935,
            -0.05539369583129883,
            -0.04607796669006348,
            -0.009420625865459442,
            -0.052959345281124115,
            0.029141783714294434,
            0.035986512899398804,
            0.03584916144609451,
            -0.05933558940887451,
            0.03491391986608505,
            -0.04861437529325485,
            -0.043101966381073,
            0.04876609146595001,
            0.049814172089099884,
            0.034830592572689056,
            -0.004113614559173584,
            -0.01039528101682663,
            -0.028350219130516052,
            0.04608231782913208,
            -0.0593855157494545,
            0.05267346650362015,
            0.024902231991291046,
            0.020029902458190918,
            0.01799643039703369,
            0.004571102559566498,
            0.03638863563537598,
            -0.00368683785200119,
            -0.018183045089244843,
            0.01455918699502945,
            0.012515418231487274,
            0.01832626760005951,
            -0.00910107046365738,
            -0.05634375661611557,
            -0.016774997115135193,
            0.016491249203681946,
            -0.005233347415924072,
            0.004121102392673492,
            0.03331869840621948,
            0.053158581256866455,
            -0.03417597711086273,
            0.01397523283958435,
            -0.011919140815734863,
            0.04051705449819565,
            0.036116547882556915,
            0.02619457244873047,
            0.052575379610061646,
            0.048599161207675934,
            0.013479717075824738,
            0.04310322552919388,
            -0.016254819929599762,
            -0.058966025710105896,
            0.04256249964237213,
            0.04958096146583557,
            -0.009374618530273438,
            0.004991799592971802,
            0.007856786251068115,
            0.016239948570728302,
            -0.0224769189953804,
            0.02592400461435318,
            -0.04579456150531769,
            -0.004194661974906921,
            -0.04091022163629532,
            0.015682101249694824,
            -0.03538092225790024,
            0.035783134400844574,
            -0.04301711916923523,
            -0.0511421263217926,
            0.0486309677362442,
            -0.046607889235019684,
            0.013502173125743866,
            -0.047183990478515625,
            0.033522166311740875,
            -0.06141790747642517,
            -0.016462668776512146,
            -0.012988142669200897,
            0.04665303975343704,
            0.05666070431470871,
            -0.019957147538661957,
            -0.007753394544124603,
            -0.01804952323436737,
            -0.05198805779218674,
            0.04992290586233139,
            0.026966840028762817,
            0.052705541253089905,
            -0.023784048855304718,
            -0.057647161185741425,
            0.003380514681339264,
            0.05905862897634506,
            0.045780010521411896,
            -0.056288011372089386,
            0.020956464111804962,
            0.028837725520133972,
            -0.05769795924425125,
            -0.027234315872192383,
            -0.02511807531118393,
            -0.009907715022563934,
            -0.027964524924755096,
            0.02091897279024124,
            0.057417601346969604,
            -0.021975859999656677,
            -0.006916731595993042,
            -0.03146965056657791,
            0.024687014520168304,
            -0.018028058111667633,
            0.04290883243083954,
            -0.007010370492935181,
            -0.015372171998023987,
            0.004193946719169617,
            0.04465098679065704,
            0.05310983955860138,
            -0.010215111076831818,
            0.049773477017879486,
            0.016954876482486725,
            0.04833395779132843,
            0.04150168597698212,
            -0.03474780172109604,
            -0.016026847064495087,
            0.0057176947593688965,
            0.0618739128112793,
            -0.027011841535568237,
            0.05779683589935303,
            -0.058363474905490875,
            -0.0497281551361084,
            0.05325452238321304,
            -0.018218040466308594,
            -0.0493386834859848,
            0.05481095612049103,
            -0.01114499568939209,
            0.010548770427703857,
            -0.028711512684822083,
            0.014115780591964722,
            0.010641008615493774,
            0.03855683654546738,
            -0.0029326453804969788,
            -0.010075539350509644,
            0.058238811790943146,
            -0.03897922486066818,
            0.0292905792593956,
            -0.026738114655017853,
            0.0036647990345954895,
            -0.012314476072788239,
            -0.03666192293167114,
            0.039700381457805634,
            0.00252358615398407,
            -0.036744073033332825,
            0.051357701420784,
            0.04731820523738861,
            -0.021329037845134735
        ],
        [
            -0.059129614382982254,
            0.04921087995171547,
            0.056035831570625305,
            -0.0048539056442677975,
            0.027714023366570473,
            0.05641573294997215,
            -0.04751548916101456,
            0.05828641355037689,
            -0.005920000374317169,
            -0.021389462053775787,
            -0.02082289755344391,
            0.022665299475193024,
            0.056246109306812286,
            0.003092008177191019,
            -0.03898019343614578,
            -0.03998182713985443,
            0.05146683752536774,
            -0.014554920606315136,
            0.028984535485506058,
            -0.0014289694372564554,
            0.062444791197776794,
            -0.05897000804543495,
            -0.04097379371523857,
            0.048720914870500565,
            0.007014065980911255,
            0.02453891932964325,
            -0.05366479605436325,
            0.021563006564974785,
            0.03419087082147598,
            0.05363932251930237,
            -0.02016327530145645,
            -0.025636889040470123,
            -0.05201742425560951,
            0.010669827461242676,
            0.03230888023972511,
            0.010219408199191093,
            -0.062385618686676025,
            -0.060935258865356445,
            -0.02140957862138748,
            0.004868166986852884,
            -0.03196339309215546,
            -0.03174286335706711,
            -0.06001061946153641,
            0.05099823325872421,
            -0.04989843815565109,
            -0.009899958968162537,
            0.059612076729536057,
            0.021458594128489494,
            -0.04609064757823944,
            -0.05700322240591049,
            0.015496481209993362,
            0.042883917689323425,
            0.0541212372481823,
            0.037592604756355286,
            -0.04516724869608879,
            -0.035475850105285645,
            0.047411974519491196,
            0.05393063277006149,
            -0.034735437482595444,
            0.046934474259614944,
            -0.01834462396800518,
            0.011730663478374481,
            0.04486621171236038,
            0.03592633828520775,
            0.019376635551452637,
            -0.01128755696117878,
            0.062250785529613495,
            0.054533712565898895,
            0.03774799033999443,
            -0.05675336346030235,
            0.0373835451900959,
            0.061965037137269974,
            -0.027676008641719818,
            -0.012285619042813778,
            -0.03697202727198601,
            0.021996663883328438,
            0.05909309536218643,
            -0.019391130656003952,
            0.0070724389515817165,
            -0.05980415269732475,
            0.017659468576312065,
            -0.03888900205492973,
            -0.05005199834704399,
            -0.01007118821144104,
            -0.051193997263908386,
            -0.040658481419086456,
            0.007999936118721962,
            0.004019965883344412,
            0.021106993779540062,
            0.03788812458515167,
            -0.03429821878671646,
            0.03868803009390831,
            0.008235317654907703,
            -0.04536312818527222,
            -0.03315097838640213,
            0.053950242698192596,
            0.04611923545598984,
            -0.005379262380301952,
            -0.017487768083810806,
            0.06103835254907608,
            0.011874250136315823,
            0.03655412793159485,
            -0.007024229038506746,
            0.010824903845787048,
            0.0327519029378891,
            -0.018528010696172714,
            0.05561737343668938,
            -0.036418430507183075,
            -0.04031218960881233,
            0.050603196024894714,
            -0.0402996651828289,
            -0.0504923053085804,
            0.0318850502371788,
            -0.011853610165417194,
            -0.045488402247428894,
            0.009896107017993927,
            0.004758938681334257,
            -0.03131671994924545,
            -0.041820213198661804,
            -0.01946917548775673,
            0.061478421092033386,
            -0.0369078665971756,
            -0.05321212112903595,
            -0.05395515263080597,
            -0.02496439404785633,
            -0.013548692688345909,
            0.04348256438970566,
            -0.03178204223513603,
            0.03789667785167694,
            -0.024440765380859375,
            0.0207449272274971,
            -0.00512300431728363,
            -0.041224293410778046,
            0.01732020080089569,
            -0.04774453490972519,
            -0.010346752591431141,
            0.0013735219836235046,
            0.022408967837691307,
            0.030194399878382683,
            0.059157535433769226,
            0.01468212902545929,
            -0.014436845667660236,
            0.060153499245643616,
            0.013102535158395767,
            -0.011125649325549603,
            -0.044966015964746475,
            0.010737594217061996,
            -0.02692408859729767,
            -0.000904772721696645,
            0.035538285970687866,
            0.04354936629533768,
            -0.015375765971839428,
            0.018514219671487808,
            -0.042273055762052536,
            0.03870827332139015,
            0.01348878350108862,
            0.000629342277534306,
            -0.010447606444358826,
            0.05993892624974251,
            -0.049082763493061066,
            0.00834499578922987,
            -0.051992807537317276,
            0.00038895756006240845,
            -0.007622415665537119,
            -0.06105472519993782,
            -0.053973544389009476,
            0.00916009210050106,
            0.011258691549301147,
            0.05109749734401703,
            0.04597674310207367,
            0.03754454106092453,
            0.02096383646130562,
            -0.06222300976514816,
            0.051817309111356735,
            -0.014844232238829136,
            0.007512227166444063,
            0.04236431047320366,
            0.014542775228619576,
            0.038479700684547424,
            0.04957401007413864,
            0.030304934829473495,
            -0.05809086561203003,
            0.017044592648744583,
            0.029128286987543106,
            -0.03476748988032341,
            -0.05007641017436981,
            0.023547038435935974,
            0.05082593858242035,
            0.05212885141372681,
            0.060647979378700256,
            0.039581939578056335,
            -0.06084141880273819,
            -0.004584938287734985,
            -0.037325531244277954,
            -0.05494950711727142,
            0.05681002512574196,
            0.027529999613761902,
            -0.018510431051254272,
            0.03168582171201706,
            0.061234697699546814,
            -0.04046712443232536,
            0.03382495790719986,
            0.032500043511390686,
            0.029617764055728912,
            0.002081324113532901,
            -0.011938595212996006,
            -0.03544530272483826,
            -0.03895728290081024,
            0.04370870441198349,
            -0.011062907986342907,
            0.03174968808889389,
            0.018533535301685333,
            0.009640209376811981,
            0.045441724359989166,
            -0.0516338087618351,
            0.004350010305643082,
            -0.022578006610274315,
            -0.03537393733859062,
            0.02572917938232422,
            -0.03725815191864967,
            0.004322464112192392,
            0.03767695277929306,
            0.06202154979109764,
            0.0266522578895092,
            0.04371911659836769,
            0.006459400057792664,
            0.023293256759643555,
            -0.043515220284461975,
            0.011053016409277916,
            0.0085701122879982,
            0.0055935680866241455,
            -0.04877205565571785,
            -0.053538598120212555,
            0.013861894607543945,
            0.000718139111995697,
            -0.02558068372309208,
            0.03966552019119263,
            0.0006606956012547016,
            -0.05294635891914368,
            -0.04732971638441086,
            0.040679771453142166,
            -0.035367827862501144,
            -0.05453987419605255,
            0.015888303518295288,
            -0.030907534062862396,
            -0.008195571601390839,
            0.05083414167165756,
            0.03185387700796127,
            0.010523699223995209,
            -0.006889178417623043,
            -0.022095147520303726,
            -0.008025793358683586,
            0.03287818282842636,
            -0.024164840579032898,
            0.0036775916814804077,
            0.008820435963571072
        ],
        [
            -0.020631864666938782,
            0.04657484591007233,
            -0.043500978499650955,
            0.043776027858257294,
            0.0486203096807003,
            -0.026593634858727455,
            0.050112612545490265,
            -0.022848986089229584,
            -0.05359776318073273,
            0.020479276776313782,
            -0.04143274575471878,
            0.005119080655276775,
            -0.009374886751174927,
            0.054626718163490295,
            0.03659779950976372,
            -0.011245167814195156,
            0.009164235554635525,
            0.024650007486343384,
            0.016561761498451233,
            0.012626695446670055,
            -0.012089765630662441,
            -0.017888441681861877,
            -0.0010337387211620808,
            -0.006143023259937763,
            -0.013386212289333344,
            -0.03757024183869362,
            0.01800333335995674,
            0.0400952585041523,
            0.027340687811374664,
            0.045494675636291504,
            0.06187226623296738,
            0.01693946123123169,
            -0.015309782698750496,
            0.037275053560733795,
            0.048557765781879425,
            -0.043669477105140686,
            0.02393946796655655,
            0.008870767429471016,
            -0.06092744693160057,
            0.019114291295409203,
            -0.04647628962993622,
            -0.061753906309604645,
            -0.03526919335126877,
            -0.014571428298950195,
            -0.044238097965717316,
            0.03819665312767029,
            -0.0022781307343393564,
            0.015724843367934227,
            0.03705768287181854,
            0.03378453850746155,
            -0.05550853908061981,
            -0.03710145503282547,
            -0.0144921550527215,
            -0.026711277663707733,
            -0.028728896751999855,
            0.027483686804771423,
            0.04054364189505577,
            -0.05329824984073639,
            -0.028700822964310646,
            0.0031584911048412323,
            -0.009993254207074642,
            -0.05919874459505081,
            -0.04155712574720383,
            0.013657040894031525,
            -0.039425328373909,
            0.029313096776604652,
            0.01021595485508442,
            -0.01434241235256195,
            -0.010502497665584087,
            -0.0017240304732695222,
            -0.009873244911432266,
            -0.060589659959077835,
            -0.06195758283138275,
            -0.02501988410949707,
            0.03997772932052612,
            0.05732695385813713,
            0.023173213005065918,
            0.028914082795381546,
            0.0019753004889935255,
            -0.05392714589834213,
            0.031421612948179245,
            -0.029994547367095947,
            -0.003921071067452431,
            0.030854202806949615,
            -0.03248455747961998,
            -0.013177741318941116,
            -0.05807104334235191,
            -0.034990645945072174,
            0.0537889301776886,
            0.011265411972999573,
            0.052349336445331573,
            0.0154269402846694,
            0.06201162189245224,
            -0.020077666267752647,
            -0.05373608320951462,
            0.059851400554180145,
            0.01858736015856266,
            0.05565592646598816,
            -0.0347590446472168,
            -0.02141805924475193,
            0.005469858646392822,
            -0.009699249640107155,
            0.03473164513707161,
            -0.05344976484775543,
            -0.010368495248258114,
            -0.03572804108262062,
            -0.0011565536260604858,
            0.041586313396692276,
            -0.0040345266461372375,
            -0.03567233309149742,
            -0.04860752075910568,
            -0.061455801129341125,
            -0.04250630736351013,
            -0.060760319232940674,
            -0.015609011054039001,
            0.003161221742630005,
            -0.0039864457212388515,
            0.013934999704360962,
            -0.05434785038232803,
            0.019049452617764473,
            -0.01704162359237671,
            -0.009888937696814537,
            0.024259507656097412,
            -0.04190602898597717,
            -0.051390212029218674,
            0.019413938745856285,
            -0.011122556403279305,
            -0.031903184950351715,
            0.041284702718257904,
            0.024645671248435974,
            0.010159626603126526,
            0.03480496257543564,
            -0.059544987976551056,
            -0.01598314195871353,
            0.036731816828250885,
            -0.003860028460621834,
            -0.03705146163702011,
            0.03974512591958046,
            0.04347725585103035,
            0.05166959390044212,
            0.051879703998565674,
            0.054024603217840195,
            -0.005128689110279083,
            0.05397852510213852,
            0.012771667912602425,
            0.01788477599620819,
            -0.0563473254442215,
            -0.060520485043525696,
            0.061482273042201996,
            -0.028491003438830376,
            -0.02979847602546215,
            -0.03167123720049858,
            0.034979045391082764,
            -0.024766558781266212,
            -0.04722215235233307,
            -0.03371662274003029,
            0.018877793103456497,
            -0.055395618081092834,
            -0.04197489842772484,
            0.02803916484117508,
            0.028070541098713875,
            0.0003043298202101141,
            0.004372619092464447,
            -0.04695995897054672,
            -0.03156019374728203,
            -0.019840069115161896,
            0.0505756177008152,
            0.01295454055070877,
            0.035574883222579956,
            -0.0029885070398449898,
            0.004446052014827728,
            -0.05313987284898758,
            0.028727464377880096,
            0.04394664615392685,
            -0.05718585103750229,
            0.04463925585150719,
            0.052512023597955704,
            0.0010052656289190054,
            -0.0021315962076187134,
            0.050547946244478226,
            0.0513947419822216,
            -0.062225937843322754,
            -0.03059389628469944,
            0.02512507326900959,
            -0.0535832941532135,
            -0.0004115179181098938,
            0.018294356763362885,
            -0.05468215048313141,
            -0.03404778987169266,
            -0.0481707826256752,
            -0.03801386058330536,
            0.011410255916416645,
            -0.001465536653995514,
            -0.02698574960231781,
            -0.061656806617975235,
            -0.04275321587920189,
            0.010657571256160736,
            0.0050177136436104774,
            0.015341989696025848,
            0.024861857295036316,
            -0.018989909440279007,
            0.02184252068400383,
            0.062238909304142,
            0.044238120317459106,
            -0.010263175703585148,
            0.041833918541669846,
            -0.010936245322227478,
            0.02786402404308319,
            0.0036018788814544678,
            0.061284489929676056,
            -0.026853904128074646,
            -0.050637342035770416,
            0.044473886489868164,
            0.017668262124061584,
            -0.00028522813227027655,
            -0.060342878103256226,
            -0.05073156580328941,
            0.029682587832212448,
            0.006804771721363068,
            -0.018351711332798004,
            0.030296754091978073,
            -0.00973155815154314,
            -0.04260556399822235,
            0.05476096644997597,
            -0.0009210366988554597,
            0.012486569583415985,
            -0.052101194858551025,
            0.04380341246724129,
            -0.007261266000568867,
            0.061632655560970306,
            0.04259736090898514,
            0.057258009910583496,
            -0.040102966129779816,
            0.05141385644674301,
            0.036164790391922,
            -0.017966989427804947,
            0.0396069660782814,
            -0.04343745484948158,
            -0.0006220117211341858,
            0.05326817184686661,
            -0.032066602259874344,
            0.04450671374797821,
            -0.06159384921193123,
            -0.01939452439546585,
            -0.060869090259075165,
            0.03410330414772034,
            0.031618375331163406,
            0.04153439775109291,
            -0.04024476557970047,
            0.03833574429154396,
            0.051762208342552185,
            -0.0537792332470417,
            0.005276342388242483,
            -0.035734765231609344,
            0.037851378321647644,
            0.015397228300571442
        ],
        [
            -0.04340200126171112,
            -0.0033447593450546265,
            0.023142069578170776,
            0.04103820025920868,
            -0.018552027642726898,
            0.05810900777578354,
            0.027235783636569977,
            0.048480354249477386,
            0.005423299968242645,
            0.04259819537401199,
            -0.04172986000776291,
            -0.03714784234762192,
            0.0009138956665992737,
            0.05786426365375519,
            -0.01709684729576111,
            -0.006304226815700531,
            -0.05779462307691574,
            0.05236577242612839,
            -0.009245045483112335,
            -0.03566610813140869,
            0.027141191065311432,
            -0.007478311657905579,
            -0.027406595647335052,
            -0.06177498400211334,
            -0.01600128412246704,
            0.0024131983518600464,
            0.008882686495780945,
            9.553134441375732e-05,
            -0.041607484221458435,
            0.037802211940288544,
            0.012510955333709717,
            0.028947286307811737,
            -0.02576032280921936,
            0.04494410753250122,
            0.055382296442985535,
            0.02692684531211853,
            0.02463885396718979,
            -0.05301082879304886,
            -0.024533309042453766,
            0.05939815938472748,
            0.04197338968515396,
            -0.01615215837955475,
            -0.0346757173538208,
            0.02099381387233734,
            0.04708065092563629,
            -0.054668813943862915,
            -0.041369207203388214,
            0.02742542326450348,
            -0.031048916280269623,
            -0.027581773698329926,
            -0.02522975206375122,
            -0.043857231736183167,
            -0.02433629333972931,
            0.05228964239358902,
            -0.02864958345890045,
            0.01298898458480835,
            0.0029807686805725098,
            -0.012230351567268372,
            -0.02941819280385971,
            0.03355688601732254,
            0.021973803639411926,
            -0.03702700883150101,
            -0.010150514543056488,
            0.042921632528305054,
            0.05336424708366394,
            -0.05065154284238815,
            -0.010400243103504181,
            0.00472027063369751,
            -0.006723031401634216,
            -0.006596289575099945,
            -0.033848389983177185,
            -0.023655757308006287,
            -0.05349860340356827,
            0.048602595925331116,
            0.028319060802459717,
            -0.05621398240327835,
            0.017897069454193115,
            0.05198287218809128,
            -0.050185009837150574,
            -0.04909486323595047,
            0.01155100017786026,
            -0.060693562030792236,
            -0.009220905601978302,
            -0.0012970641255378723,
            -0.03942535072565079,
            0.02429860830307007,
            0.02911171317100525,
            -0.058785684406757355,
            0.02802155911922455,
            0.018939949572086334,
            0.037977203726768494,
            -0.04656599462032318,
            0.018954351544380188,
            -0.05644211918115616,
            0.04460657387971878,
            -0.0011286959052085876,
            0.004179313778877258,
            -0.061515405774116516,
            -0.02376703917980194,
            0.054729707539081573,
            -0.002485141158103943,
            -0.06105145812034607,
            0.005403853952884674,
            0.0327981635928154,
            0.03394864499568939,
            -0.007873229682445526,
            -0.023077093064785004,
            0.04103374481201172,
            0.028507232666015625,
            -0.014676466584205627,
            0.04799644649028778,
            -0.0153050497174263,
            0.015118509531021118,
            0.01152123510837555,
            0.025823011994361877,
            -0.029920294880867004,
            0.004557743668556213,
            -0.033535681664943695,
            -0.034913502633571625,
            0.01469864696264267,
            0.007437705993652344,
            -0.04749953746795654,
            0.0421576201915741,
            0.030373483896255493,
            -0.05789332836866379,
            -0.02256809175014496,
            -0.039268188178539276,
            0.022620588541030884,
            -0.02577521651983261,
            -0.04014413803815842,
            -0.0582299530506134,
            -0.0054677873849868774,
            0.029459387063980103,
            0.03123721480369568,
            0.027387268841266632,
            0.058549582958221436,
            0.027873292565345764,
            -0.05666296184062958,
            0.04316142946481705,
            -0.05340879410505295,
            0.031893134117126465,
            0.058150582015514374,
            -0.016160398721694946,
            -0.0402146652340889,
            -0.04596606642007828,
            -0.0443851575255394,
            -0.04269365221261978,
            0.023218698799610138,
            0.015147790312767029,
            -0.04591338336467743,
            -0.03717603534460068,
            0.055989839136600494,
            -0.014245010912418365,
            0.028476625680923462,
            0.0618785098195076,
            -0.0031305253505706787,
            -0.018114909529685974,
            0.024861671030521393,
            -0.04163245111703873,
            -0.03524893522262573,
            0.04706612229347229,
            0.016736559569835663,
            -0.059843748807907104,
            -0.053492479026317596,
            -0.05540782958269119,
            0.02351786196231842,
            0.052407681941986084,
            0.04945980757474899,
            -0.03146420419216156,
            0.02647339552640915,
            0.04346942901611328,
            -0.041318267583847046,
            0.05782240629196167,
            -0.028286613523960114,
            0.012640424072742462,
            0.01694527268409729,
            0.06196676939725876,
            -0.015833772718906403,
            -0.015857599675655365,
            0.016101285815238953,
            -0.02894996851682663,
            -0.03696252405643463,
            0.019881509244441986,
            -0.06046681851148605,
            -0.04334885627031326,
            -0.040810756385326385,
            -0.04334735870361328,
            0.020885318517684937,
            -0.026641622185707092,
            -0.03353140503168106,
            0.04263846576213837,
            0.052281156182289124,
            -0.014295607805252075,
            -0.05601516366004944,
            0.019813574850559235,
            -0.013266101479530334,
            -0.04081697016954422,
            -0.007365219295024872,
            0.015082724392414093,
            -0.05979838967323303,
            0.024112574756145477,
            0.04628444463014603,
            0.026890605688095093,
            0.041825927793979645,
            -0.0049993544816970825,
            -0.014561399817466736,
            0.05850832909345627,
            -0.03250807523727417,
            -0.0256815105676651,
            -0.03206673264503479,
            0.039396584033966064,
            0.058059826493263245,
            0.050577908754348755,
            -0.04508586972951889,
            0.0006629005074501038,
            -0.05729101598262787,
            0.014796942472457886,
            0.008586160838603973,
            -0.027516767382621765,
            -0.0031000375747680664,
            -0.04838643968105316,
            0.05428546667098999,
            -0.01918768137693405,
            -0.041857197880744934,
            -0.028989195823669434,
            0.04439770430326462,
            -0.009922094643115997,
            0.020804867148399353,
            -0.05694590508937836,
            -0.03322700411081314,
            0.017463885247707367,
            0.02102828025817871,
            -0.005023151636123657,
            0.04001322388648987,
            -0.050744734704494476,
            -0.03467146307229996,
            0.010262347757816315,
            -0.025777854025363922,
            -0.021357320249080658,
            -0.011597596108913422,
            -0.04907142370939255,
            0.04705130308866501,
            -0.03869520127773285,
            0.06232479214668274,
            -0.013753578066825867,
            -0.039854392409324646,
            -0.009093791246414185,
            -0.06046087294816971,
            -0.03764551132917404,
            0.034493960440158844,
            -0.01710560917854309,
            -0.004074260592460632,
            0.01582074910402298,
            -0.04423680156469345,
            -0.031801991164684296,
            -0.02737511694431305
        ],
        [
            -0.05360156297683716,
            -0.048150431364774704,
            0.003983842208981514,
            0.01716889999806881,
            0.028796354308724403,
            -0.01625693216919899,
            0.043086737394332886,
            -0.0172983780503273,
            0.02845248579978943,
            -0.04711361974477768,
            -0.046257808804512024,
            -0.009045661427080631,
            0.0004052668809890747,
            0.006056435871869326,
            -0.04894571378827095,
            -0.0005300609627738595,
            0.014725609682500362,
            -0.020573504269123077,
            -0.05505060777068138,
            0.020070917904376984,
            0.0032919198274612427,
            0.044544633477926254,
            0.03411795198917389,
            -0.05200064182281494,
            -0.0019791636150330305,
            -0.054311275482177734,
            0.04254217818379402,
            0.01579885557293892,
            0.013661033473908901,
            0.0093320831656456,
            0.022522330284118652,
            0.03265414386987686,
            0.03217185288667679,
            -0.05167214572429657,
            0.06206000968813896,
            -0.02443944849073887,
            -0.012178451754152775,
            -0.0009225495741702616,
            0.04842285066843033,
            0.028551841154694557,
            0.011636339128017426,
            0.03331045061349869,
            0.00962737575173378,
            -0.036517150700092316,
            -0.030553050339221954,
            0.05602046847343445,
            0.04567275196313858,
            -0.05389316380023956,
            0.04088211804628372,
            -0.041803017258644104,
            0.012338305823504925,
            0.038200780749320984,
            -0.01681496389210224,
            0.03686869144439697,
            -0.06071393936872482,
            0.048941437155008316,
            0.03997717425227165,
            0.041926972568035126,
            -0.053544629365205765,
            -0.00647213589400053,
            0.01468260120600462,
            -0.010566391050815582,
            -0.025396641343832016,
            0.0415022037923336,
            0.05513760820031166,
            -0.03606638312339783,
            0.011655674315989017,
            -0.059869736433029175,
            -0.050265248864889145,
            -0.051150549203157425,
            0.05408695340156555,
            -0.05431734398007393,
            -0.03082304447889328,
            0.03796198219060898,
            -0.02691616863012314,
            -0.01769438199698925,
            0.03084636479616165,
            0.017946481704711914,
            -0.04833148047327995,
            0.05254093557596207,
            0.0012521640164777637,
            0.050792496651411057,
            -0.02947523444890976,
            -0.04998749494552612,
            0.04063845053315163,
            -0.036102261394262314,
            -0.03227129206061363,
            -0.02369208261370659,
            -0.06041901558637619,
            0.01462152972817421,
            -0.020649969577789307,
            -0.0147667545825243,
            -0.007815621793270111,
            0.049933671951293945,
            0.029961436986923218,
            -0.03935006260871887,
            -0.03947454318404198,
            0.02417934313416481,
            -0.007489997893571854,
            -0.002973441034555435,
            0.05401042848825455,
            -0.047352954745292664,
            -0.005509498063474894,
            0.009623195976018906,
            0.05145783722400665,
            -0.011242061853408813,
            0.05094735324382782,
            0.03164702653884888,
            0.01686522364616394,
            -0.016067562624812126,
            0.0565892830491066,
            -0.04742284119129181,
            -0.013813489116728306,
            -0.00847439095377922,
            0.04582347720861435,
            -0.010840833187103271,
            0.0007486647227779031,
            0.05279117077589035,
            0.019791709259152412,
            0.04022718593478203,
            -0.004373160656541586,
            -0.03234433755278587,
            -0.03584207594394684,
            0.030039720237255096,
            -0.05238984152674675,
            -0.061948683112859726,
            -0.02237258106470108,
            0.02447030320763588,
            0.03911006450653076,
            -0.03854931890964508,
            -0.004567496478557587,
            0.03246043622493744,
            -0.03136548399925232,
            -0.04003138095140457,
            0.037607550621032715,
            0.01100411731749773,
            -0.05709150433540344,
            -0.043800778687000275,
            -0.012296226806938648,
            -0.012348375283181667,
            0.025363661348819733,
            0.014247128739953041,
            0.061778221279382706,
            0.02284148707985878,
            0.056562136858701706,
            -0.0256356131285429,
            -0.04153887555003166,
            0.014542020857334137,
            0.04546310752630234,
            -0.03358063846826553,
            0.038273245096206665,
            0.0018521372694522142,
            -0.02773027867078781,
            0.03598715364933014,
            0.01914498582482338,
            -0.02192678488790989,
            0.0283663272857666,
            -0.013813119381666183,
            0.002212475286796689,
            0.013530731201171875,
            -0.00790161732584238,
            0.008263255469501019,
            -0.03445170074701309,
            0.0395842120051384,
            0.04100063070654869,
            -0.013852305710315704,
            -0.0017887626308947802,
            -0.056215800344944,
            -0.036589160561561584,
            -0.04597504809498787,
            0.004351183772087097,
            0.015201924368739128,
            0.017938077449798584,
            0.0035247006453573704,
            0.014548785984516144,
            -0.0423605740070343,
            -0.04028024524450302,
            -0.0029645967297255993,
            -0.02646344155073166,
            -0.012986928224563599,
            -0.053400103002786636,
            -0.017131969332695007,
            -0.0186628345400095,
            0.01049604918807745,
            0.04802684858441353,
            0.05724155157804489,
            0.052940234541893005,
            0.019689954817295074,
            0.04020143300294876,
            -0.0232335664331913,
            -0.02665664814412594,
            -0.002257211832329631,
            0.008828029036521912,
            -0.03495289385318756,
            -0.03817571699619293,
            -0.013274537399411201,
            -0.018953576683998108,
            0.055493682622909546,
            -0.0503852516412735,
            0.03647217899560928,
            -0.01082591712474823,
            -0.04698165878653526,
            -0.012850291095674038,
            0.005627073347568512,
            0.02019401825964451,
            0.011761948466300964,
            -0.051778197288513184,
            -0.05383094400167465,
            -0.016986846923828125,
            -0.03189482539892197,
            -0.05050782859325409,
            0.016963757574558258,
            0.028979472815990448,
            0.031982846558094025,
            -0.03230943903326988,
            0.013054355047643185,
            0.010339275933802128,
            0.05650964379310608,
            0.037429459393024445,
            0.05252855643630028,
            0.046516817063093185,
            -0.05164989084005356,
            0.021536801010370255,
            0.049433354288339615,
            0.016151532530784607,
            -0.010651931166648865,
            -0.054703012108802795,
            -0.04983939975500107,
            -0.0443713553249836,
            -0.014994751662015915,
            -0.007057450711727142,
            0.02016865462064743,
            -0.012837924063205719,
            -0.06128828972578049,
            -0.03369183838367462,
            -0.004540432244539261,
            -0.05404715985059738,
            0.02028539776802063,
            -0.039229489862918854,
            -0.04376085847616196,
            -0.055880025029182434,
            -0.05371946096420288,
            0.061531148850917816,
            0.05657663941383362,
            0.057109534740448,
            0.012497685849666595,
            -0.002497522160410881,
            -0.04156288504600525,
            0.059910260140895844,
            -0.041465356945991516,
            -0.0044606211595237255,
            -0.026936771348118782,
            0.060756683349609375,
            -0.02937837690114975,
            0.0441570058465004,
            -0.03797822445631027
        ],
        [
            0.005735062062740326,
            -0.053836509585380554,
            0.011692188680171967,
            0.007616400718688965,
            -0.041430383920669556,
            -0.043924279510974884,
            -0.005996435880661011,
            0.02416028082370758,
            -0.0042805299162864685,
            -0.05404404550790787,
            0.040297433733940125,
            0.0007350817322731018,
            -0.03504794090986252,
            0.056044138967990875,
            0.0005116462707519531,
            -0.009735114872455597,
            -0.011775478720664978,
            0.010308794677257538,
            -6.64740800857544e-05,
            -0.03615811467170715,
            -0.005762211978435516,
            0.03510517627000809,
            0.05478905141353607,
            -0.003540836274623871,
            0.002943187952041626,
            0.05029953271150589,
            0.009745463728904724,
            0.00825461745262146,
            0.0036246031522750854,
            0.02404029667377472,
            0.01203901320695877,
            -0.03039463609457016,
            -0.04451822489500046,
            0.03411240130662918,
            0.01396535336971283,
            -0.0033994466066360474,
            -0.05880381911993027,
            0.02503623068332672,
            0.027274243533611298,
            -0.05115433782339096,
            0.006573468446731567,
            -0.01753641664981842,
            0.039415791630744934,
            -0.008013322949409485,
            -0.044640496373176575,
            -0.035470157861709595,
            -0.06108107417821884,
            0.008749224245548248,
            -0.050405703485012054,
            -0.05917702615261078,
            -0.022991791367530823,
            0.01481223851442337,
            -0.038609012961387634,
            0.02717999368906021,
            -0.04043179005384445,
            -0.058721959590911865,
            0.04761523753404617,
            -0.005775786936283112,
            0.039926253259181976,
            -0.06004806607961655,
            0.014454491436481476,
            -0.02391849458217621,
            -0.046098530292510986,
            -0.058335937559604645,
            -0.044490747153759,
            0.013493098318576813,
            0.01552492380142212,
            0.017493024468421936,
            -0.04058244079351425,
            -0.0014846771955490112,
            -0.05796816200017929,
            0.019190549850463867,
            0.01519763469696045,
            -0.007779866456985474,
            0.03849487006664276,
            -0.003982730209827423,
            0.00839901715517044,
            0.05298137664794922,
            -0.033432602882385254,
            -0.015350289642810822,
            -0.03224016726016998,
            0.06161767244338989,
            -0.03502962738275528,
            0.018438324332237244,
            0.0502157062292099,
            -0.05128898471593857,
            -0.060058124363422394,
            0.017012067139148712,
            -0.05235897749662399,
            -0.03897298127412796,
            0.022907108068466187,
            0.003664158284664154,
            -0.013725973665714264,
            -0.039551809430122375,
            -0.05193519592285156,
            -0.0321660116314888,
            -0.016828365623950958,
            -0.007750064134597778,
            0.008741110563278198,
            0.04966465383768082,
            -0.012150168418884277,
            0.05079418420791626,
            0.005446866154670715,
            -0.051939480006694794,
            -0.0338732972741127,
            0.03978697210550308,
            -0.026376284658908844,
            0.013748735189437866,
            0.023311257362365723,
            -0.04936620593070984,
            0.04783475399017334,
            0.03725918382406235,
            -0.06203670799732208,
            -0.015938319265842438,
            -0.03352200239896774,
            0.027535632252693176,
            0.05660132318735123,
            -0.008318722248077393,
            -0.04282461851835251,
            -0.04590270668268204,
            0.03432163596153259,
            0.006367065012454987,
            -0.04633577913045883,
            0.023892410099506378,
            -0.0012748315930366516,
            -0.001228615641593933,
            -0.010304495692253113,
            -0.016283102333545685,
            0.007652990520000458,
            0.009102314710617065,
            -0.05187942832708359,
            0.025084517896175385,
            -0.015936054289340973,
            0.005019962787628174,
            0.002316214144229889,
            -0.03475002944469452,
            0.05712396651506424,
            -0.028809815645217896,
            0.018700145184993744,
            0.022492915391921997,
            -0.00846584141254425,
            0.00713694840669632,
            -0.010046415030956268,
            -0.024259351193904877,
            0.009591437876224518,
            -0.06177878379821777,
            0.04454025626182556,
            -0.033503949642181396,
            -0.04311592876911163,
            -0.011977747082710266,
            0.028440959751605988,
            0.034638360142707825,
            -0.017625220119953156,
            -0.05751208961009979,
            -0.025833040475845337,
            0.03525938093662262,
            -0.015156693756580353,
            -0.029595889151096344,
            0.0329214408993721,
            -0.010463729500770569,
            0.03779767453670502,
            0.019250676035881042,
            -0.058078646659851074,
            0.012933537364006042,
            -0.039655596017837524,
            -0.02366095781326294,
            -0.0005723387002944946,
            -0.034046515822410583,
            0.004385992884635925,
            -0.03980153053998947,
            0.027800239622592926,
            -0.04924430698156357,
            -0.019407324492931366,
            -0.05269906669855118,
            0.048623278737068176,
            -0.06117177754640579,
            -0.029854580760002136,
            0.02459762990474701,
            0.019829802215099335,
            -0.03392118960618973,
            -0.06091027706861496,
            0.016032055020332336,
            -0.055003538727760315,
            0.06118211895227432,
            -0.02046894282102585,
            -0.043590836226940155,
            -0.06108088046312332,
            -0.019895225763320923,
            -0.05339861661195755,
            -0.004312388598918915,
            -0.013362430036067963,
            -0.05337286740541458,
            0.018715091049671173,
            0.006002992391586304,
            -0.030374065041542053,
            -0.04838018864393234,
            -0.05869028717279434,
            -0.03806960582733154,
            0.03406737744808197,
            0.04685915261507034,
            -0.046234384179115295,
            0.017476603388786316,
            -0.028937585651874542,
            0.0358622670173645,
            0.02056940644979477,
            -0.051571980118751526,
            -0.045842595398426056,
            -0.005293101072311401,
            0.036435022950172424,
            2.0116567611694336e-05,
            -0.020029649138450623,
            -0.0346507802605629,
            -0.04012254625558853,
            0.04867599904537201,
            -0.011230558156967163,
            -0.01692267507314682,
            -0.014572113752365112,
            -0.00040153414011001587,
            -0.0025457963347434998,
            0.03967701643705368,
            -0.012975431978702545,
            -0.030536063015460968,
            -0.04857516288757324,
            0.05048047751188278,
            -0.028698332607746124,
            0.059935711324214935,
            -0.028449907898902893,
            -0.021915219724178314,
            -0.014838382601737976,
            0.04998495429754257,
            0.034095704555511475,
            0.00847788155078888,
            -0.006993651390075684,
            0.0024770796298980713,
            0.023494713008403778,
            -0.05877158045768738,
            -0.00926770269870758,
            0.018200114369392395,
            -0.04497288167476654,
            -0.02507338672876358,
            0.022618554532527924,
            -0.02236739546060562,
            -0.038015834987163544,
            -0.01946132630109787,
            0.007359452545642853,
            -0.0015686079859733582,
            0.05031867325305939,
            -0.036919966340065,
            0.03521488606929779,
            -0.003956682980060577,
            0.058989547193050385,
            0.044590309262275696,
            0.06122913211584091,
            -0.004350997507572174,
            -0.03770948201417923,
            0.051018036901950836
        ],
        [
            0.030902324244379997,
            -0.043378181755542755,
            -0.019468266516923904,
            -0.02994665876030922,
            -0.05786404386162758,
            0.005857289303094149,
            0.020425938069820404,
            -0.011282256804406643,
            0.024621479213237762,
            0.010667651891708374,
            -0.01740638166666031,
            -0.04222840815782547,
            0.0003666877746582031,
            0.06178651750087738,
            -0.017330322414636612,
            0.058112308382987976,
            -0.04997736215591431,
            -0.040546201169490814,
            -0.03326449543237686,
            0.023993222042918205,
            0.02377595379948616,
            0.03762538358569145,
            0.025262601673603058,
            0.00321872322820127,
            0.009714511223137379,
            0.013670814223587513,
            0.0470224991440773,
            -0.057188116014003754,
            -0.049345385283231735,
            0.03128397464752197,
            -0.007225111126899719,
            0.035884108394384384,
            0.05050782486796379,
            -0.02241390198469162,
            0.02617807686328888,
            0.0036259889602661133,
            -0.01176137663424015,
            0.04647626355290413,
            0.009846983477473259,
            -0.0067612468264997005,
            -0.05215054750442505,
            -0.043411292135715485,
            0.011758977547287941,
            -0.03581530228257179,
            0.05629851669073105,
            -0.0130171999335289,
            0.029699495062232018,
            0.014843089506030083,
            0.00868995487689972,
            0.0227520614862442,
            0.0004285269824322313,
            -0.048118285834789276,
            -0.025039341300725937,
            0.022367745637893677,
            0.01838228851556778,
            0.04536755383014679,
            -0.03779103234410286,
            0.06091350317001343,
            -0.0246047955006361,
            0.04303501918911934,
            -0.016802769154310226,
            -0.058109454810619354,
            -0.023115025833249092,
            -0.03137509897351265,
            0.05604255944490433,
            0.05708497390151024,
            -0.05189865827560425,
            0.025690391659736633,
            -0.027901802211999893,
            0.03554815053939819,
            -0.005540657322853804,
            -0.03030357137322426,
            -0.013367488980293274,
            0.03326871991157532,
            -0.019580062478780746,
            0.008496667258441448,
            -0.010115005075931549,
            0.0018879605922847986,
            0.029862860217690468,
            -0.05371934920549393,
            0.05074513703584671,
            -0.030187735334038734,
            0.020398154854774475,
            0.026722624897956848,
            -0.01423341128975153,
            0.006372600328177214,
            -0.05040975287556648,
            -0.0008451786125078797,
            0.009679576382040977,
            0.03980641812086105,
            0.024142712354660034,
            -0.03615531325340271,
            -0.06035509705543518,
            0.006122981663793325,
            -0.029138609766960144,
            -0.04885934293270111,
            -0.02064802683889866,
            0.014961431734263897,
            -0.011090030893683434,
            0.04042404517531395,
            0.02473682165145874,
            0.04041726142168045,
            0.05663616955280304,
            -0.03002006560564041,
            0.044164083898067474,
            -0.020880358293652534,
            -0.008776618167757988,
            0.018450984731316566,
            0.04105008393526077,
            -0.005003453232347965,
            0.04034176468849182,
            0.006925121881067753,
            -0.01716342568397522,
            -0.009035532362759113,
            0.025965474545955658,
            -0.030629605054855347,
            -0.028827562928199768,
            0.03860637545585632,
            -0.016113732010126114,
            -0.05991112068295479,
            0.019277676939964294,
            0.03895880654454231,
            -0.028735995292663574,
            0.03531133383512497,
            -0.04249786585569382,
            -0.00023628109192941338,
            -0.014477032236754894,
            0.05318044126033783,
            -0.040254734456539154,
            0.006593838334083557,
            0.006229065358638763,
            0.006995901465415955,
            -0.06154826283454895,
            0.00765913724899292,
            0.06069875508546829,
            0.03093481995165348,
            -0.06195183843374252,
            0.05748191848397255,
            -0.020170532166957855,
            0.002292894758284092,
            -0.047211192548274994,
            -0.04655802622437477,
            -0.0201770830899477,
            0.04456274211406708,
            0.05343470722436905,
            -0.012529082596302032,
            -0.02731759287416935,
            0.030194371938705444,
            0.05274186655879021,
            0.055874817073345184,
            0.011589107103645802,
            0.005139136221259832,
            0.03404249995946884,
            -0.04879118874669075,
            0.007068045902997255,
            0.029367689043283463,
            0.037701841443777084,
            0.029468080028891563,
            -0.0027892717625945807,
            0.03827919065952301,
            -0.025912251323461533,
            -0.04598844423890114,
            -0.007109314203262329,
            -0.04109635949134827,
            0.024618390947580338,
            0.034603267908096313,
            -0.0323687344789505,
            0.052628301084041595,
            -0.03506001830101013,
            -0.057714853435754776,
            -0.010305117815732956,
            -0.020406555384397507,
            -0.055175572633743286,
            -0.005750523880124092,
            0.0036697806790471077,
            0.03955348581075668,
            0.010052946396172047,
            0.013507421128451824,
            -0.02792184054851532,
            -0.056187476962804794,
            0.038830723613500595,
            0.018717430531978607,
            0.05023376643657684,
            0.02870083600282669,
            0.01861545629799366,
            -0.052385274320840836,
            0.0017024901462718844,
            0.05146533250808716,
            -0.02209443412721157,
            -0.013169486075639725,
            -0.03805914521217346,
            -0.04636881873011589,
            0.052144505083560944,
            0.004119120538234711,
            -0.046219728887081146,
            -0.053466204553842545,
            -0.01304878294467926,
            -0.05716104805469513,
            -0.06055732071399689,
            -0.01252467930316925,
            0.04183104261755943,
            0.034560754895210266,
            -0.06040986254811287,
            -0.05343793332576752,
            -0.00916532427072525,
            -0.03890565410256386,
            -0.05467568337917328,
            0.05480024963617325,
            -0.049651794135570526,
            -0.042111244052648544,
            0.03505885601043701,
            0.00024840235710144043,
            -0.048381954431533813,
            -0.04737304896116257,
            -0.04250533506274223,
            0.013799934647977352,
            -0.023863447830080986,
            -0.049664564430713654,
            0.04337818920612335,
            -0.05911955609917641,
            -0.005017643794417381,
            0.020059969276189804,
            -0.03394429013133049,
            -0.013443025760352612,
            0.021776720881462097,
            -0.038490891456604004,
            0.00816740095615387,
            -0.03397735208272934,
            -0.01651388593018055,
            0.029931701719760895,
            0.02625519037246704,
            -0.019281333312392235,
            0.03983625769615173,
            0.035543158650398254,
            0.012857161462306976,
            -0.03464857488870621,
            -0.0465037003159523,
            -0.03445390239357948,
            -0.00044845789670944214,
            0.040916748344898224,
            -0.0588945597410202,
            0.03898870199918747,
            0.038316912949085236,
            0.04128359258174896,
            0.023066654801368713,
            -0.06108219176530838,
            -0.05752627179026604,
            0.05541328340768814,
            0.051072463393211365,
            0.011975041590631008,
            -0.04184608533978462,
            0.03255821019411087,
            0.05749403312802315,
            -0.021209657192230225,
            0.024609602987766266,
            -0.010872426442801952
        ],
        [
            0.00680317310616374,
            0.0004817613516934216,
            -0.020601719617843628,
            0.006011250428855419,
            -0.03378046303987503,
            -0.04136126488447189,
            0.05108111351728439,
            -0.05076645314693451,
            -0.012356355786323547,
            0.04185978323221207,
            0.043187834322452545,
            -0.00931765791028738,
            -0.01746068149805069,
            -0.03456003591418266,
            0.013957954943180084,
            0.025027183815836906,
            0.016002103686332703,
